digraph Tree {
node [shape=box, style="filled, rounded", color="black", fontname="helvetica"] ;
edge [fontname="helvetica"] ;
0 [label="CRuns <= 204.5\nsquared_error = 0.791\nsamples = 184\nvalue = 5.934", fillcolor="#f3c3a0"] ;
1 [label="CRBI <= 59.5\nsquared_error = 0.358\nsamples = 77\nvalue = 5.105", fillcolor="#f9e0ce"] ;
0 -> 1 [labeldistance=2.5, labelangle=45, headlabel="True"] ;
2 [label="CRBI <= 6.0\nsquared_error = 0.232\nsamples = 28\nvalue = 4.576", fillcolor="#fcf2eb"] ;
1 -> 2 ;
3 [label="squared_error = 0.0\nsamples = 1\nvalue = 6.824", fillcolor="#eca36f"] ;
2 -> 3 ;
4 [label="CHits <= 79.0\nsquared_error = 0.047\nsamples = 27\nvalue = 4.493", fillcolor="#fdf5f0"] ;
2 -> 4 ;
5 [label="CHmRun <= 9.5\nsquared_error = 0.006\nsamples = 10\nvalue = 4.288", fillcolor="#fefcfb"] ;
4 -> 5 ;
6 [label="NewLeague_N <= 0.5\nsquared_error = 0.002\nsamples = 9\nvalue = 4.264", fillcolor="#fffdfc"] ;
5 -> 6 ;
7 [label="Errors <= 6.0\nsquared_error = 0.0\nsamples = 6\nvalue = 4.238", fillcolor="#fffefe"] ;
6 -> 7 ;
8 [label="CAtBat <= 220.5\nsquared_error = 0.0\nsamples = 2\nvalue = 4.216", fillcolor="#ffffff"] ;
7 -> 8 ;
9 [label="squared_error = 0.0\nsamples = 1\nvalue = 4.22", fillcolor="#ffffff"] ;
8 -> 9 ;
10 [label="squared_error = 0.0\nsamples = 1\nvalue = 4.212", fillcolor="#ffffff"] ;
8 -> 10 ;
11 [label="squared_error = 0.0\nsamples = 4\nvalue = 4.248", fillcolor="#fffefd"] ;
7 -> 11 ;
12 [label="AtBat <= 190.5\nsquared_error = 0.0\nsamples = 3\nvalue = 4.317", fillcolor="#fefbf9"] ;
6 -> 12 ;
13 [label="squared_error = 0.0\nsamples = 1\nvalue = 4.317", fillcolor="#fefbf9"] ;
12 -> 13 ;
14 [label="squared_error = 0.0\nsamples = 2\nvalue = 4.317", fillcolor="#fefbf9"] ;
12 -> 14 ;
15 [label="squared_error = 0.0\nsamples = 1\nvalue = 4.5", fillcolor="#fdf5ef"] ;
5 -> 15 ;
16 [label="PutOuts <= 130.0\nsquared_error = 0.031\nsamples = 17\nvalue = 4.614", fillcolor="#fcf1e9"] ;
4 -> 16 ;
17 [label="Assists <= 49.0\nsquared_error = 0.01\nsamples = 3\nvalue = 4.837", fillcolor="#fae9dd"] ;
16 -> 17 ;
18 [label="squared_error = 0.0\nsamples = 1\nvalue = 4.7", fillcolor="#fbeee4"] ;
17 -> 18 ;
19 [label="PutOuts <= 79.5\nsquared_error = 0.001\nsamples = 2\nvalue = 4.905", fillcolor="#fae7d9"] ;
17 -> 19 ;
20 [label="squared_error = 0.0\nsamples = 1\nvalue = 4.942", fillcolor="#fae5d7"] ;
19 -> 20 ;
21 [label="squared_error = 0.0\nsamples = 1\nvalue = 4.868", fillcolor="#fae8db"] ;
19 -> 21 ;
22 [label="PutOuts <= 218.5\nsquared_error = 0.023\nsamples = 14\nvalue = 4.566", fillcolor="#fcf3ec"] ;
16 -> 22 ;
23 [label="HmRun <= 11.0\nsquared_error = 0.012\nsamples = 4\nvalue = 4.399", fillcolor="#fef8f5"] ;
22 -> 23 ;
24 [label="CRBI <= 44.0\nsquared_error = 0.001\nsamples = 3\nvalue = 4.339", fillcolor="#fefbf8"] ;
23 -> 24 ;
25 [label="squared_error = 0.0\nsamples = 2\nvalue = 4.317", fillcolor="#fefbf9"] ;
24 -> 25 ;
26 [label="squared_error = 0.0\nsamples = 1\nvalue = 4.382", fillcolor="#fef9f6"] ;
24 -> 26 ;
27 [label="squared_error = -0.0\nsamples = 1\nvalue = 4.58", fillcolor="#fcf2eb"] ;
23 -> 27 ;
28 [label="RBI <= 30.0\nsquared_error = 0.012\nsamples = 10\nvalue = 4.633", fillcolor="#fcf0e8"] ;
22 -> 28 ;
29 [label="Hits <= 82.5\nsquared_error = 0.0\nsamples = 2\nvalue = 4.486", fillcolor="#fdf5f0"] ;
28 -> 29 ;
30 [label="squared_error = 0.0\nsamples = 1\nvalue = 4.5", fillcolor="#fdf5ef"] ;
29 -> 30 ;
31 [label="squared_error = 0.0\nsamples = 1\nvalue = 4.472", fillcolor="#fdf6f1"] ;
29 -> 31 ;
32 [label="CHits <= 105.5\nsquared_error = 0.008\nsamples = 8\nvalue = 4.67", fillcolor="#fcefe6"] ;
28 -> 32 ;
33 [label="Walks <= 47.5\nsquared_error = 0.002\nsamples = 3\nvalue = 4.576", fillcolor="#fcf2eb"] ;
32 -> 33 ;
34 [label="squared_error = 0.0\nsamples = 1\nvalue = 4.516", fillcolor="#fdf4ee"] ;
33 -> 34 ;
35 [label="squared_error = 0.0\nsamples = 2\nvalue = 4.605", fillcolor="#fcf1e9"] ;
33 -> 35 ;
36 [label="CHmRun <= 9.5\nsquared_error = 0.003\nsamples = 5\nvalue = 4.726", fillcolor="#fbede3"] ;
32 -> 36 ;
37 [label="RBI <= 34.5\nsquared_error = 0.0\nsamples = 3\nvalue = 4.685", fillcolor="#fceee5"] ;
36 -> 37 ;
38 [label="squared_error = 0.0\nsamples = 1\nvalue = 4.654", fillcolor="#fcf0e7"] ;
37 -> 38 ;
39 [label="squared_error = -0.0\nsamples = 2\nvalue = 4.7", fillcolor="#fbeee4"] ;
37 -> 39 ;
40 [label="CWalks <= 56.0\nsquared_error = 0.0\nsamples = 2\nvalue = 4.787", fillcolor="#fbebdf"] ;
36 -> 40 ;
41 [label="squared_error = 0.0\nsamples = 1\nvalue = 4.787", fillcolor="#fbebdf"] ;
40 -> 41 ;
42 [label="squared_error = 0.0\nsamples = 1\nvalue = 4.787", fillcolor="#fbebdf"] ;
40 -> 42 ;
43 [label="CWalks <= 173.5\nsquared_error = 0.179\nsamples = 49\nvalue = 5.407", fillcolor="#f6d5bd"] ;
1 -> 43 ;
44 [label="CAtBat <= 703.5\nsquared_error = 0.113\nsamples = 45\nvalue = 5.335", fillcolor="#f7d8c1"] ;
43 -> 44 ;
45 [label="CWalks <= 79.5\nsquared_error = 0.03\nsamples = 13\nvalue = 5.071", fillcolor="#f9e1d0"] ;
44 -> 45 ;
46 [label="CRBI <= 75.5\nsquared_error = 0.019\nsamples = 11\nvalue = 5.022", fillcolor="#f9e3d2"] ;
45 -> 46 ;
47 [label="CRuns <= 68.5\nsquared_error = 0.01\nsamples = 3\nvalue = 4.842", fillcolor="#fae9dc"] ;
46 -> 47 ;
48 [label="squared_error = 0.0\nsamples = 1\nvalue = 4.7", fillcolor="#fbeee4"] ;
47 -> 48 ;
49 [label="CWalks <= 42.5\nsquared_error = 0.0\nsamples = 2\nvalue = 4.913", fillcolor="#fae6d8"] ;
47 -> 49 ;
50 [label="squared_error = 0.0\nsamples = 1\nvalue = 4.92", fillcolor="#fae6d8"] ;
49 -> 50 ;
51 [label="squared_error = -0.0\nsamples = 1\nvalue = 4.905", fillcolor="#fae7d9"] ;
49 -> 51 ;
52 [label="CRuns <= 86.5\nsquared_error = 0.006\nsamples = 8\nvalue = 5.089", fillcolor="#f9e0cf"] ;
46 -> 52 ;
53 [label="PutOuts <= 402.5\nsquared_error = 0.003\nsamples = 5\nvalue = 5.131", fillcolor="#f8dfcc"] ;
52 -> 53 ;
54 [label="CAtBat <= 666.5\nsquared_error = 0.0\nsamples = 3\nvalue = 5.168", fillcolor="#f8ddca"] ;
53 -> 54 ;
55 [label="Runs <= 50.0\nsquared_error = 0.0\nsamples = 2\nvalue = 5.156", fillcolor="#f8decb"] ;
54 -> 55 ;
56 [label="squared_error = 0.0\nsamples = 1\nvalue = 5.165", fillcolor="#f8decb"] ;
55 -> 56 ;
57 [label="squared_error = 0.0\nsamples = 1\nvalue = 5.147", fillcolor="#f8decb"] ;
55 -> 57 ;
58 [label="squared_error = -0.0\nsamples = 1\nvalue = 5.193", fillcolor="#f8ddc9"] ;
54 -> 58 ;
59 [label="Hits <= 124.0\nsquared_error = 0.001\nsamples = 2\nvalue = 5.075", fillcolor="#f9e1d0"] ;
53 -> 59 ;
60 [label="squared_error = 0.0\nsamples = 1\nvalue = 5.043", fillcolor="#f9e2d1"] ;
59 -> 60 ;
61 [label="squared_error = -0.0\nsamples = 1\nvalue = 5.106", fillcolor="#f9e0ce"] ;
59 -> 61 ;
62 [label="Years <= 2.5\nsquared_error = 0.004\nsamples = 3\nvalue = 5.02", fillcolor="#f9e3d3"] ;
52 -> 62 ;
63 [label="squared_error = 0.0\nsamples = 1\nvalue = 5.106", fillcolor="#f9e0ce"] ;
62 -> 63 ;
64 [label="squared_error = -0.0\nsamples = 2\nvalue = 4.977", fillcolor="#f9e4d5"] ;
62 -> 64 ;
65 [label="Runs <= 76.0\nsquared_error = 0.001\nsamples = 2\nvalue = 5.341", fillcolor="#f7d7c1"] ;
45 -> 65 ;
66 [label="squared_error = 0.0\nsamples = 1\nvalue = 5.371", fillcolor="#f7d6bf"] ;
65 -> 66 ;
67 [label="squared_error = -0.0\nsamples = 1\nvalue = 5.311", fillcolor="#f7d9c3"] ;
65 -> 67 ;
68 [label="RBI <= 85.5\nsquared_error = 0.107\nsamples = 32\nvalue = 5.443", fillcolor="#f6d4bb"] ;
44 -> 68 ;
69 [label="CHmRun <= 25.5\nsquared_error = 0.068\nsamples = 29\nvalue = 5.504", fillcolor="#f6d2b8"] ;
68 -> 69 ;
70 [label="Years <= 3.5\nsquared_error = 0.045\nsamples = 18\nvalue = 5.388", fillcolor="#f6d6be"] ;
69 -> 70 ;
71 [label="CAtBat <= 958.5\nsquared_error = 0.019\nsamples = 5\nvalue = 5.161", fillcolor="#f8decb"] ;
70 -> 71 ;
72 [label="CHits <= 245.5\nsquared_error = 0.002\nsamples = 2\nvalue = 5.322", fillcolor="#f7d8c2"] ;
71 -> 72 ;
73 [label="squared_error = 0.0\nsamples = 1\nvalue = 5.273", fillcolor="#f7dac5"] ;
72 -> 73 ;
74 [label="squared_error = 0.0\nsamples = 1\nvalue = 5.371", fillcolor="#f7d6bf"] ;
72 -> 74 ;
75 [label="CHmRun <= 10.5\nsquared_error = 0.001\nsamples = 3\nvalue = 5.054", fillcolor="#f9e2d1"] ;
71 -> 75 ;
76 [label="squared_error = 0.0\nsamples = 2\nvalue = 5.075", fillcolor="#f9e1cf"] ;
75 -> 76 ;
77 [label="squared_error = 0.0\nsamples = 1\nvalue = 5.011", fillcolor="#f9e3d3"] ;
75 -> 77 ;
78 [label="CHmRun <= 15.5\nsquared_error = 0.028\nsamples = 13\nvalue = 5.475", fillcolor="#f6d3b9"] ;
70 -> 78 ;
79 [label="CRBI <= 97.5\nsquared_error = 0.018\nsamples = 8\nvalue = 5.569", fillcolor="#f5cfb4"] ;
78 -> 79 ;
80 [label="RBI <= 19.0\nsquared_error = 0.002\nsamples = 5\nvalue = 5.484", fillcolor="#f6d2b9"] ;
79 -> 80 ;
81 [label="League_N <= 0.5\nsquared_error = 0.0\nsamples = 2\nvalue = 5.427", fillcolor="#f6d4bc"] ;
80 -> 81 ;
82 [label="squared_error = 0.0\nsamples = 1\nvalue = 5.438", fillcolor="#f6d4bb"] ;
81 -> 82 ;
83 [label="squared_error = -0.0\nsamples = 1\nvalue = 5.416", fillcolor="#f6d5bd"] ;
81 -> 83 ;
84 [label="squared_error = -0.0\nsamples = 3\nvalue = 5.521", fillcolor="#f6d1b7"] ;
80 -> 84 ;
85 [label="Walks <= 25.0\nsquared_error = 0.011\nsamples = 3\nvalue = 5.711", fillcolor="#f4caac"] ;
79 -> 85 ;
86 [label="RBI <= 23.0\nsquared_error = 0.0\nsamples = 2\nvalue = 5.638", fillcolor="#f5cdb1"] ;
85 -> 86 ;
87 [label="squared_error = 0.0\nsamples = 1\nvalue = 5.658", fillcolor="#f5ccaf"] ;
86 -> 87 ;
88 [label="squared_error = -0.0\nsamples = 1\nvalue = 5.617", fillcolor="#f5ceb2"] ;
86 -> 88 ;
89 [label="squared_error = 0.0\nsamples = 1\nvalue = 5.858", fillcolor="#f3c5a4"] ;
85 -> 89 ;
90 [label="Walks <= 18.0\nsquared_error = 0.007\nsamples = 5\nvalue = 5.325", fillcolor="#f7d8c2"] ;
78 -> 90 ;
91 [label="squared_error = 0.0\nsamples = 1\nvalue = 5.481", fillcolor="#f6d3b9"] ;
90 -> 91 ;
92 [label="AtBat <= 313.0\nsquared_error = 0.002\nsamples = 4\nvalue = 5.286", fillcolor="#f7d9c4"] ;
90 -> 92 ;
93 [label="CWalks <= 138.5\nsquared_error = 0.0\nsamples = 2\nvalue = 5.25", fillcolor="#f7dbc6"] ;
92 -> 93 ;
94 [label="squared_error = 0.0\nsamples = 1\nvalue = 5.247", fillcolor="#f8dbc6"] ;
93 -> 94 ;
95 [label="squared_error = -0.0\nsamples = 1\nvalue = 5.252", fillcolor="#f7dbc6"] ;
93 -> 95 ;
96 [label="AtBat <= 436.5\nsquared_error = 0.001\nsamples = 2\nvalue = 5.323", fillcolor="#f7d8c2"] ;
92 -> 96 ;
97 [label="squared_error = 0.0\nsamples = 1\nvalue = 5.347", fillcolor="#f7d7c1"] ;
96 -> 97 ;
98 [label="squared_error = 0.0\nsamples = 1\nvalue = 5.298", fillcolor="#f7d9c3"] ;
96 -> 98 ;
99 [label="CRBI <= 113.0\nsquared_error = 0.046\nsamples = 11\nvalue = 5.694", fillcolor="#f4cbad"] ;
69 -> 99 ;
100 [label="CHmRun <= 34.0\nsquared_error = 0.011\nsamples = 2\nvalue = 5.405", fillcolor="#f6d5bd"] ;
99 -> 100 ;
101 [label="squared_error = 0.0\nsamples = 1\nvalue = 5.511", fillcolor="#f6d1b7"] ;
100 -> 101 ;
102 [label="squared_error = 0.0\nsamples = 1\nvalue = 5.298", fillcolor="#f7d9c3"] ;
100 -> 102 ;
103 [label="Errors <= 4.0\nsquared_error = 0.031\nsamples = 9\nvalue = 5.758", fillcolor="#f4c9aa"] ;
99 -> 103 ;
104 [label="Hits <= 85.0\nsquared_error = 0.0\nsamples = 2\nvalue = 6.04", fillcolor="#f2bf9a"] ;
103 -> 104 ;
105 [label="squared_error = 0.0\nsamples = 1\nvalue = 6.052", fillcolor="#f2bf9a"] ;
104 -> 105 ;
106 [label="squared_error = 0.0\nsamples = 1\nvalue = 6.028", fillcolor="#f2bf9b"] ;
104 -> 106 ;
107 [label="AtBat <= 201.5\nsquared_error = 0.011\nsamples = 7\nvalue = 5.678", fillcolor="#f4ccae"] ;
103 -> 107 ;
108 [label="CRuns <= 121.0\nsquared_error = 0.002\nsamples = 2\nvalue = 5.54", fillcolor="#f5d0b6"] ;
107 -> 108 ;
109 [label="squared_error = 0.0\nsamples = 1\nvalue = 5.58", fillcolor="#f5cfb4"] ;
108 -> 109 ;
110 [label="squared_error = -0.0\nsamples = 1\nvalue = 5.501", fillcolor="#f6d2b8"] ;
108 -> 110 ;
111 [label="Assists <= 1.5\nsquared_error = 0.004\nsamples = 5\nvalue = 5.733", fillcolor="#f4caab"] ;
107 -> 111 ;
112 [label="squared_error = 0.0\nsamples = 1\nvalue = 5.858", fillcolor="#f3c5a4"] ;
111 -> 112 ;
113 [label="PutOuts <= 136.0\nsquared_error = 0.0\nsamples = 4\nvalue = 5.702", fillcolor="#f4cbad"] ;
111 -> 113 ;
114 [label="squared_error = 0.0\nsamples = 1\nvalue = 5.695", fillcolor="#f4cbad"] ;
113 -> 114 ;
115 [label="squared_error = 0.0\nsamples = 3\nvalue = 5.704", fillcolor="#f4cbad"] ;
113 -> 115 ;
116 [label="Hits <= 152.5\nsquared_error = 0.1\nsamples = 3\nvalue = 4.852", fillcolor="#fae9dc"] ;
68 -> 116 ;
117 [label="HmRun <= 24.5\nsquared_error = 0.001\nsamples = 2\nvalue = 4.63", fillcolor="#fcf0e8"] ;
116 -> 117 ;
118 [label="squared_error = 0.0\nsamples = 1\nvalue = 4.654", fillcolor="#fcf0e7"] ;
117 -> 118 ;
119 [label="squared_error = -0.0\nsamples = 1\nvalue = 4.605", fillcolor="#fcf1e9"] ;
117 -> 119 ;
120 [label="squared_error = 0.0\nsamples = 1\nvalue = 5.298", fillcolor="#f7d9c3"] ;
116 -> 120 ;
121 [label="Assists <= 39.0\nsquared_error = 0.209\nsamples = 4\nvalue = 6.215", fillcolor="#f1b991"] ;
43 -> 121 ;
122 [label="RBI <= 44.5\nsquared_error = 0.004\nsamples = 2\nvalue = 5.766", fillcolor="#f4c9a9"] ;
121 -> 122 ;
123 [label="squared_error = 0.0\nsamples = 1\nvalue = 5.829", fillcolor="#f3c6a6"] ;
122 -> 123 ;
124 [label="squared_error = 0.0\nsamples = 1\nvalue = 5.704", fillcolor="#f4cbad"] ;
122 -> 124 ;
125 [label="HmRun <= 10.0\nsquared_error = 0.012\nsamples = 2\nvalue = 6.663", fillcolor="#eda978"] ;
121 -> 125 ;
126 [label="squared_error = 0.0\nsamples = 1\nvalue = 6.774", fillcolor="#eca572"] ;
125 -> 126 ;
127 [label="squared_error = -0.0\nsamples = 1\nvalue = 6.551", fillcolor="#eead7e"] ;
125 -> 127 ;
128 [label="Hits <= 115.5\nsquared_error = 0.252\nsamples = 107\nvalue = 6.531", fillcolor="#eeae7f"] ;
0 -> 128 [labeldistance=2.5, labelangle=-45, headlabel="False"] ;
129 [label="CHmRun <= 130.0\nsquared_error = 0.194\nsamples = 46\nvalue = 6.221", fillcolor="#f0b990"] ;
128 -> 129 ;
130 [label="Years <= 11.5\nsquared_error = 0.126\nsamples = 32\nvalue = 6.077", fillcolor="#f2be98"] ;
129 -> 130 ;
131 [label="RBI <= 23.0\nsquared_error = 0.083\nsamples = 20\nvalue = 6.227", fillcolor="#f0b890"] ;
130 -> 131 ;
132 [label="CAtBat <= 3013.5\nsquared_error = 0.013\nsamples = 3\nvalue = 6.639", fillcolor="#edaa79"] ;
131 -> 132 ;
133 [label="League_N <= 0.5\nsquared_error = 0.0\nsamples = 2\nvalue = 6.557", fillcolor="#eead7e"] ;
132 -> 133 ;
134 [label="squared_error = 0.0\nsamples = 1\nvalue = 6.551", fillcolor="#eead7e"] ;
133 -> 134 ;
135 [label="squared_error = 0.0\nsamples = 1\nvalue = 6.563", fillcolor="#eead7e"] ;
133 -> 135 ;
136 [label="squared_error = -0.0\nsamples = 1\nvalue = 6.802", fillcolor="#eca470"] ;
132 -> 136 ;
137 [label="CRBI <= 277.0\nsquared_error = 0.06\nsamples = 17\nvalue = 6.154", fillcolor="#f1bb94"] ;
131 -> 137 ;
138 [label="Division_W <= 0.5\nsquared_error = 0.034\nsamples = 9\nvalue = 6.003", fillcolor="#f2c09c"] ;
137 -> 138 ;
139 [label="AtBat <= 354.0\nsquared_error = 0.025\nsamples = 5\nvalue = 6.113", fillcolor="#f1bc96"] ;
138 -> 139 ;
140 [label="PutOuts <= 75.5\nsquared_error = 0.008\nsamples = 3\nvalue = 5.998", fillcolor="#f2c09d"] ;
139 -> 140 ;
141 [label="squared_error = 0.0\nsamples = 1\nvalue = 6.109", fillcolor="#f1bd97"] ;
140 -> 141 ;
142 [label="CRBI <= 174.5\nsquared_error = 0.002\nsamples = 2\nvalue = 5.942", fillcolor="#f2c2a0"] ;
140 -> 142 ;
143 [label="squared_error = 0.0\nsamples = 1\nvalue = 5.991", fillcolor="#f2c19d"] ;
142 -> 143 ;
144 [label="squared_error = 0.0\nsamples = 1\nvalue = 5.893", fillcolor="#f3c4a2"] ;
142 -> 144 ;
145 [label="Runs <= 42.5\nsquared_error = 0.001\nsamples = 2\nvalue = 6.287", fillcolor="#f0b68d"] ;
139 -> 145 ;
146 [label="squared_error = 0.0\nsamples = 1\nvalue = 6.263", fillcolor="#f0b78e"] ;
145 -> 146 ;
147 [label="squared_error = -0.0\nsamples = 1\nvalue = 6.31", fillcolor="#f0b58b"] ;
145 -> 147 ;
148 [label="Errors <= 9.0\nsquared_error = 0.012\nsamples = 4\nvalue = 5.865", fillcolor="#f3c5a4"] ;
138 -> 148 ;
149 [label="Years <= 9.0\nsquared_error = 0.001\nsamples = 3\nvalue = 5.802", fillcolor="#f4c7a7"] ;
148 -> 149 ;
150 [label="Walks <= 46.5\nsquared_error = 0.0\nsamples = 2\nvalue = 5.786", fillcolor="#f4c8a8"] ;
149 -> 150 ;
151 [label="squared_error = 0.0\nsamples = 1\nvalue = 5.784", fillcolor="#f4c8a8"] ;
150 -> 151 ;
152 [label="squared_error = 0.0\nsamples = 1\nvalue = 5.789", fillcolor="#f4c8a8"] ;
150 -> 152 ;
153 [label="squared_error = -0.0\nsamples = 1\nvalue = 5.834", fillcolor="#f3c6a6"] ;
149 -> 153 ;
154 [label="squared_error = -0.0\nsamples = 1\nvalue = 6.052", fillcolor="#f2bf9a"] ;
148 -> 154 ;
155 [label="Errors <= 5.5\nsquared_error = 0.035\nsamples = 8\nvalue = 6.324", fillcolor="#f0b58b"] ;
137 -> 155 ;
156 [label="Assists <= 5.5\nsquared_error = 0.011\nsamples = 4\nvalue = 6.176", fillcolor="#f1ba93"] ;
155 -> 156 ;
157 [label="League_N <= 0.5\nsquared_error = 0.001\nsamples = 2\nvalue = 6.081", fillcolor="#f1be98"] ;
156 -> 157 ;
158 [label="squared_error = 0.0\nsamples = 1\nvalue = 6.052", fillcolor="#f2bf9a"] ;
157 -> 158 ;
159 [label="squared_error = -0.0\nsamples = 1\nvalue = 6.109", fillcolor="#f1bd97"] ;
157 -> 159 ;
160 [label="Division_W <= 0.5\nsquared_error = 0.003\nsamples = 2\nvalue = 6.271", fillcolor="#f0b78e"] ;
156 -> 160 ;
161 [label="squared_error = 0.0\nsamples = 1\nvalue = 6.328", fillcolor="#f0b58a"] ;
160 -> 161 ;
162 [label="squared_error = 0.0\nsamples = 1\nvalue = 6.215", fillcolor="#f1b991"] ;
160 -> 162 ;
163 [label="Errors <= 17.0\nsquared_error = 0.015\nsamples = 4\nvalue = 6.472", fillcolor="#efb083"] ;
155 -> 163 ;
164 [label="Errors <= 12.5\nsquared_error = 0.004\nsamples = 3\nvalue = 6.535", fillcolor="#eeae7f"] ;
163 -> 164 ;
165 [label="CRBI <= 306.5\nsquared_error = 0.0\nsamples = 2\nvalue = 6.492", fillcolor="#efaf81"] ;
164 -> 165 ;
166 [label="squared_error = 0.0\nsamples = 1\nvalue = 6.507", fillcolor="#eeaf81"] ;
165 -> 166 ;
167 [label="squared_error = -0.0\nsamples = 1\nvalue = 6.477", fillcolor="#efb082"] ;
165 -> 167 ;
168 [label="squared_error = -0.0\nsamples = 1\nvalue = 6.62", fillcolor="#eeab7a"] ;
164 -> 168 ;
169 [label="squared_error = 0.0\nsamples = 1\nvalue = 6.282", fillcolor="#f0b68d"] ;
163 -> 169 ;
170 [label="Hits <= 73.5\nsquared_error = 0.099\nsamples = 12\nvalue = 5.827", fillcolor="#f3c6a6"] ;
130 -> 170 ;
171 [label="RBI <= 44.0\nsquared_error = 0.026\nsamples = 6\nvalue = 5.566", fillcolor="#f5d0b4"] ;
170 -> 171 ;
172 [label="Errors <= 1.0\nsquared_error = 0.005\nsamples = 5\nvalue = 5.499", fillcolor="#f6d2b8"] ;
171 -> 172 ;
173 [label="squared_error = 0.0\nsamples = 1\nvalue = 5.617", fillcolor="#f5ceb2"] ;
172 -> 173 ;
174 [label="League_N <= 0.5\nsquared_error = 0.001\nsamples = 4\nvalue = 5.469", fillcolor="#f6d3ba"] ;
172 -> 174 ;
175 [label="RBI <= 29.5\nsquared_error = 0.0\nsamples = 2\nvalue = 5.438", fillcolor="#f6d4bc"] ;
174 -> 175 ;
176 [label="squared_error = 0.0\nsamples = 1\nvalue = 5.46", fillcolor="#f6d3ba"] ;
175 -> 176 ;
177 [label="squared_error = -0.0\nsamples = 1\nvalue = 5.416", fillcolor="#f6d5bd"] ;
175 -> 177 ;
178 [label="CHits <= 902.0\nsquared_error = 0.0\nsamples = 2\nvalue = 5.501", fillcolor="#f6d2b8"] ;
174 -> 178 ;
179 [label="squared_error = 0.0\nsamples = 1\nvalue = 5.481", fillcolor="#f6d3b9"] ;
178 -> 179 ;
180 [label="squared_error = -0.0\nsamples = 1\nvalue = 5.521", fillcolor="#f6d1b7"] ;
178 -> 180 ;
181 [label="squared_error = 0.0\nsamples = 1\nvalue = 5.9", fillcolor="#f3c4a2"] ;
171 -> 181 ;
182 [label="Assists <= 214.5\nsquared_error = 0.035\nsamples = 6\nvalue = 6.089", fillcolor="#f1bd98"] ;
170 -> 182 ;
183 [label="CRBI <= 478.5\nsquared_error = 0.017\nsamples = 5\nvalue = 6.153", fillcolor="#f1bb94"] ;
182 -> 183 ;
184 [label="CWalks <= 350.0\nsquared_error = 0.002\nsamples = 4\nvalue = 6.092", fillcolor="#f1bd97"] ;
183 -> 184 ;
185 [label="Runs <= 40.0\nsquared_error = 0.0\nsamples = 2\nvalue = 6.048", fillcolor="#f2bf9a"] ;
184 -> 185 ;
186 [label="squared_error = 0.0\nsamples = 1\nvalue = 6.032", fillcolor="#f2bf9b"] ;
185 -> 186 ;
187 [label="squared_error = -0.0\nsamples = 1\nvalue = 6.064", fillcolor="#f2be99"] ;
185 -> 187 ;
188 [label="PutOuts <= 347.0\nsquared_error = 0.001\nsamples = 2\nvalue = 6.136", fillcolor="#f1bc95"] ;
184 -> 188 ;
189 [label="squared_error = 0.0\nsamples = 1\nvalue = 6.109", fillcolor="#f1bd97"] ;
188 -> 189 ;
190 [label="squared_error = 0.0\nsamples = 1\nvalue = 6.163", fillcolor="#f1bb94"] ;
188 -> 190 ;
191 [label="squared_error = -0.0\nsamples = 1\nvalue = 6.397", fillcolor="#efb287"] ;
183 -> 191 ;
192 [label="squared_error = 0.0\nsamples = 1\nvalue = 5.768", fillcolor="#f4c8a9"] ;
182 -> 192 ;
193 [label="Assists <= 172.0\nsquared_error = 0.193\nsamples = 14\nvalue = 6.551", fillcolor="#eead7e"] ;
129 -> 193 ;
194 [label="CRBI <= 1331.0\nsquared_error = 0.078\nsamples = 13\nvalue = 6.648", fillcolor="#edaa79"] ;
193 -> 194 ;
195 [label="RBI <= 24.0\nsquared_error = 0.049\nsamples = 11\nvalue = 6.729", fillcolor="#eda774"] ;
194 -> 195 ;
196 [label="squared_error = 0.0\nsamples = 1\nvalue = 7.17", fillcolor="#ea975c"] ;
195 -> 196 ;
197 [label="PutOuts <= 56.5\nsquared_error = 0.033\nsamples = 10\nvalue = 6.684", fillcolor="#eda877"] ;
195 -> 197 ;
198 [label="CWalks <= 928.0\nsquared_error = 0.001\nsamples = 2\nvalue = 6.98", fillcolor="#eb9e67"] ;
197 -> 198 ;
199 [label="squared_error = 0.0\nsamples = 1\nvalue = 7.003", fillcolor="#eb9d65"] ;
198 -> 199 ;
200 [label="squared_error = -0.0\nsamples = 1\nvalue = 6.957", fillcolor="#eb9f68"] ;
198 -> 200 ;
201 [label="RBI <= 56.5\nsquared_error = 0.014\nsamples = 8\nvalue = 6.611", fillcolor="#eeab7b"] ;
197 -> 201 ;
202 [label="Runs <= 49.5\nsquared_error = 0.006\nsamples = 5\nvalue = 6.536", fillcolor="#eeae7f"] ;
201 -> 202 ;
203 [label="CHits <= 1941.0\nsquared_error = 0.002\nsamples = 4\nvalue = 6.571", fillcolor="#eeac7d"] ;
202 -> 203 ;
204 [label="CWalks <= 536.0\nsquared_error = 0.0\nsamples = 2\nvalue = 6.533", fillcolor="#eeae7f"] ;
203 -> 204 ;
205 [label="squared_error = 0.0\nsamples = 1\nvalue = 6.515", fillcolor="#eeae80"] ;
204 -> 205 ;
206 [label="squared_error = 0.0\nsamples = 1\nvalue = 6.551", fillcolor="#eead7e"] ;
204 -> 206 ;
207 [label="Errors <= 7.5\nsquared_error = 0.0\nsamples = 2\nvalue = 6.609", fillcolor="#eeab7b"] ;
203 -> 207 ;
208 [label="squared_error = 0.0\nsamples = 1\nvalue = 6.62", fillcolor="#eeab7a"] ;
207 -> 208 ;
209 [label="squared_error = 0.0\nsamples = 1\nvalue = 6.598", fillcolor="#eeab7c"] ;
207 -> 209 ;
210 [label="squared_error = 0.0\nsamples = 1\nvalue = 6.397", fillcolor="#efb287"] ;
202 -> 210 ;
211 [label="CHits <= 1445.0\nsquared_error = 0.001\nsamples = 3\nvalue = 6.735", fillcolor="#eda774"] ;
201 -> 211 ;
212 [label="squared_error = 0.0\nsamples = 1\nvalue = 6.685", fillcolor="#eda877"] ;
211 -> 212 ;
213 [label="HmRun <= 12.0\nsquared_error = 0.0\nsamples = 2\nvalue = 6.76", fillcolor="#eda673"] ;
211 -> 213 ;
214 [label="squared_error = 0.0\nsamples = 1\nvalue = 6.745", fillcolor="#eda674"] ;
213 -> 214 ;
215 [label="squared_error = 0.0\nsamples = 1\nvalue = 6.774", fillcolor="#eca572"] ;
213 -> 215 ;
216 [label="CAtBat <= 8962.0\nsquared_error = 0.0\nsamples = 2\nvalue = 6.202", fillcolor="#f1b991"] ;
194 -> 216 ;
217 [label="squared_error = 0.0\nsamples = 1\nvalue = 6.215", fillcolor="#f1b991"] ;
216 -> 217 ;
218 [label="squared_error = 0.0\nsamples = 1\nvalue = 6.189", fillcolor="#f1ba92"] ;
216 -> 218 ;
219 [label="squared_error = -0.0\nsamples = 1\nvalue = 5.298", fillcolor="#f7d9c3"] ;
193 -> 219 ;
220 [label="CHmRun <= 68.0\nsquared_error = 0.168\nsamples = 61\nvalue = 6.765", fillcolor="#eda672"] ;
128 -> 220 ;
221 [label="CHits <= 459.5\nsquared_error = 0.072\nsamples = 28\nvalue = 6.493", fillcolor="#efaf81"] ;
220 -> 221 ;
222 [label="CRBI <= 147.5\nsquared_error = 0.037\nsamples = 6\nvalue = 6.146", fillcolor="#f1bb95"] ;
221 -> 222 ;
223 [label="Walks <= 51.5\nsquared_error = 0.002\nsamples = 2\nvalue = 5.906", fillcolor="#f3c4a2"] ;
222 -> 223 ;
224 [label="squared_error = 0.0\nsamples = 1\nvalue = 5.858", fillcolor="#f3c5a4"] ;
223 -> 224 ;
225 [label="squared_error = 0.0\nsamples = 1\nvalue = 5.953", fillcolor="#f2c29f"] ;
223 -> 225 ;
226 [label="Division_W <= 0.5\nsquared_error = 0.011\nsamples = 4\nvalue = 6.266", fillcolor="#f0b78e"] ;
222 -> 226 ;
227 [label="CHmRun <= 45.5\nsquared_error = 0.003\nsamples = 2\nvalue = 6.364", fillcolor="#efb489"] ;
226 -> 227 ;
228 [label="squared_error = 0.0\nsamples = 1\nvalue = 6.418", fillcolor="#efb286"] ;
227 -> 228 ;
229 [label="squared_error = 0.0\nsamples = 1\nvalue = 6.31", fillcolor="#f0b58b"] ;
227 -> 229 ;
230 [label="Years <= 4.5\nsquared_error = 0.0\nsamples = 2\nvalue = 6.169", fillcolor="#f1ba93"] ;
226 -> 230 ;
231 [label="squared_error = 0.0\nsamples = 1\nvalue = 6.174", fillcolor="#f1ba93"] ;
230 -> 231 ;
232 [label="squared_error = 0.0\nsamples = 1\nvalue = 6.163", fillcolor="#f1bb94"] ;
230 -> 232 ;
233 [label="RBI <= 67.0\nsquared_error = 0.039\nsamples = 22\nvalue = 6.588", fillcolor="#eeac7c"] ;
221 -> 233 ;
234 [label="CRBI <= 338.0\nsquared_error = 0.03\nsamples = 18\nvalue = 6.641", fillcolor="#edaa79"] ;
233 -> 234 ;
235 [label="CRuns <= 293.5\nsquared_error = 0.016\nsamples = 14\nvalue = 6.582", fillcolor="#eeac7d"] ;
234 -> 235 ;
236 [label="Assists <= 83.5\nsquared_error = 0.015\nsamples = 5\nvalue = 6.469", fillcolor="#efb083"] ;
235 -> 236 ;
237 [label="squared_error = 0.0\nsamples = 2\nvalue = 6.62", fillcolor="#eeab7a"] ;
236 -> 237 ;
238 [label="HmRun <= 9.5\nsquared_error = 0.0\nsamples = 3\nvalue = 6.369", fillcolor="#efb388"] ;
236 -> 238 ;
239 [label="CWalks <= 172.0\nsquared_error = 0.0\nsamples = 2\nvalue = 6.359", fillcolor="#efb489"] ;
238 -> 239 ;
240 [label="squared_error = 0.0\nsamples = 1\nvalue = 6.354", fillcolor="#f0b489"] ;
239 -> 240 ;
241 [label="squared_error = 0.0\nsamples = 1\nvalue = 6.363", fillcolor="#efb489"] ;
239 -> 241 ;
242 [label="squared_error = 0.0\nsamples = 1\nvalue = 6.389", fillcolor="#efb387"] ;
238 -> 242 ;
243 [label="Walks <= 27.5\nsquared_error = 0.005\nsamples = 9\nvalue = 6.645", fillcolor="#edaa79"] ;
235 -> 243 ;
244 [label="CRBI <= 290.5\nsquared_error = 0.0\nsamples = 2\nvalue = 6.76", fillcolor="#eda673"] ;
243 -> 244 ;
245 [label="squared_error = 0.0\nsamples = 1\nvalue = 6.774", fillcolor="#eca572"] ;
244 -> 245 ;
246 [label="squared_error = 0.0\nsamples = 1\nvalue = 6.745", fillcolor="#eda674"] ;
244 -> 246 ;
247 [label="CWalks <= 145.5\nsquared_error = 0.001\nsamples = 7\nvalue = 6.612", fillcolor="#eeab7b"] ;
243 -> 247 ;
248 [label="squared_error = 0.0\nsamples = 1\nvalue = 6.551", fillcolor="#eead7e"] ;
247 -> 248 ;
249 [label="CHits <= 758.5\nsquared_error = 0.001\nsamples = 6\nvalue = 6.622", fillcolor="#eeab7a"] ;
247 -> 249 ;
250 [label="CRBI <= 230.5\nsquared_error = 0.0\nsamples = 2\nvalue = 6.65", fillcolor="#edaa79"] ;
249 -> 250 ;
251 [label="squared_error = 0.0\nsamples = 1\nvalue = 6.64", fillcolor="#edaa79"] ;
250 -> 251 ;
252 [label="squared_error = -0.0\nsamples = 1\nvalue = 6.659", fillcolor="#eda978"] ;
250 -> 252 ;
253 [label="PutOuts <= 173.5\nsquared_error = 0.0\nsamples = 4\nvalue = 6.608", fillcolor="#eeab7b"] ;
249 -> 253 ;
254 [label="squared_error = 0.0\nsamples = 1\nvalue = 6.586", fillcolor="#eeac7c"] ;
253 -> 254 ;
255 [label="Runs <= 90.5\nsquared_error = 0.0\nsamples = 3\nvalue = 6.616", fillcolor="#eeab7b"] ;
253 -> 255 ;
256 [label="CHmRun <= 29.0\nsquared_error = 0.0\nsamples = 2\nvalue = 6.62", fillcolor="#eeab7a"] ;
255 -> 256 ;
257 [label="squared_error = 0.0\nsamples = 1\nvalue = 6.62", fillcolor="#eeab7a"] ;
256 -> 257 ;
258 [label="squared_error = 0.0\nsamples = 1\nvalue = 6.62", fillcolor="#eeab7a"] ;
256 -> 258 ;
259 [label="squared_error = -0.0\nsamples = 1\nvalue = 6.607", fillcolor="#eeab7b"] ;
255 -> 259 ;
260 [label="CRBI <= 438.0\nsquared_error = 0.026\nsamples = 4\nvalue = 6.847", fillcolor="#eca36e"] ;
234 -> 260 ;
261 [label="HmRun <= 9.5\nsquared_error = 0.008\nsamples = 3\nvalue = 6.928", fillcolor="#eba069"] ;
260 -> 261 ;
262 [label="Hits <= 155.5\nsquared_error = 0.002\nsamples = 2\nvalue = 6.869", fillcolor="#eca26d"] ;
261 -> 262 ;
263 [label="squared_error = 0.0\nsamples = 1\nvalue = 6.83", fillcolor="#eca36f"] ;
262 -> 263 ;
264 [label="squared_error = 0.0\nsamples = 1\nvalue = 6.908", fillcolor="#eca16b"] ;
262 -> 264 ;
265 [label="squared_error = -0.0\nsamples = 1\nvalue = 7.048", fillcolor="#ea9c63"] ;
261 -> 265 ;
266 [label="squared_error = 0.0\nsamples = 1\nvalue = 6.603", fillcolor="#eeab7b"] ;
260 -> 266 ;
267 [label="AtBat <= 576.5\nsquared_error = 0.011\nsamples = 4\nvalue = 6.349", fillcolor="#f0b489"] ;
233 -> 267 ;
268 [label="CAtBat <= 3574.0\nsquared_error = 0.001\nsamples = 2\nvalue = 6.244", fillcolor="#f0b88f"] ;
267 -> 268 ;
269 [label="squared_error = 0.0\nsamples = 1\nvalue = 6.273", fillcolor="#f0b78e"] ;
268 -> 269 ;
270 [label="squared_error = 0.0\nsamples = 1\nvalue = 6.215", fillcolor="#f1b991"] ;
268 -> 270 ;
271 [label="CRBI <= 210.5\nsquared_error = 0.0\nsamples = 2\nvalue = 6.454", fillcolor="#efb084"] ;
267 -> 271 ;
272 [label="squared_error = 0.0\nsamples = 1\nvalue = 6.446", fillcolor="#efb184"] ;
271 -> 272 ;
273 [label="squared_error = 0.0\nsamples = 1\nvalue = 6.461", fillcolor="#efb083"] ;
271 -> 273 ;
274 [label="Errors <= 5.5\nsquared_error = 0.135\nsamples = 33\nvalue = 6.995", fillcolor="#eb9d66"] ;
220 -> 274 ;
275 [label="CHmRun <= 181.5\nsquared_error = 0.1\nsamples = 12\nvalue = 6.778", fillcolor="#eca572"] ;
274 -> 275 ;
276 [label="AtBat <= 609.0\nsquared_error = 0.028\nsamples = 8\nvalue = 6.951", fillcolor="#eb9f68"] ;
275 -> 276 ;
277 [label="CRBI <= 576.0\nsquared_error = 0.013\nsamples = 7\nvalue = 7.0", fillcolor="#eb9d65"] ;
276 -> 277 ;
278 [label="HmRun <= 15.5\nsquared_error = 0.007\nsamples = 4\nvalue = 7.083", fillcolor="#ea9a61"] ;
277 -> 278 ;
279 [label="squared_error = 0.0\nsamples = 1\nvalue = 6.95", fillcolor="#eb9f68"] ;
278 -> 279 ;
280 [label="Assists <= 11.0\nsquared_error = 0.001\nsamples = 3\nvalue = 7.127", fillcolor="#ea995e"] ;
278 -> 280 ;
281 [label="squared_error = 0.0\nsamples = 1\nvalue = 7.17", fillcolor="#ea975c"] ;
280 -> 281 ;
282 [label="Runs <= 93.5\nsquared_error = 0.0\nsamples = 2\nvalue = 7.105", fillcolor="#ea9a60"] ;
280 -> 282 ;
283 [label="squared_error = 0.0\nsamples = 1\nvalue = 7.09", fillcolor="#ea9a61"] ;
282 -> 283 ;
284 [label="squared_error = -0.0\nsamples = 1\nvalue = 7.121", fillcolor="#ea995f"] ;
282 -> 284 ;
285 [label="Errors <= 4.0\nsquared_error = 0.001\nsamples = 3\nvalue = 6.891", fillcolor="#eca16c"] ;
277 -> 285 ;
286 [label="squared_error = -0.0\nsamples = 2\nvalue = 6.908", fillcolor="#eca16b"] ;
285 -> 286 ;
287 [label="squared_error = 0.0\nsamples = 1\nvalue = 6.856", fillcolor="#eca26d"] ;
285 -> 287 ;
288 [label="squared_error = 0.0\nsamples = 1\nvalue = 6.607", fillcolor="#eeab7b"] ;
276 -> 288 ;
289 [label="Runs <= 85.5\nsquared_error = 0.063\nsamples = 4\nvalue = 6.432", fillcolor="#efb185"] ;
275 -> 289 ;
290 [label="Division_W <= 0.5\nsquared_error = 0.004\nsamples = 3\nvalue = 6.291", fillcolor="#f0b68d"] ;
289 -> 290 ;
291 [label="Walks <= 64.0\nsquared_error = 0.001\nsamples = 2\nvalue = 6.248", fillcolor="#f0b88f"] ;
290 -> 291 ;
292 [label="squared_error = 0.0\nsamples = 1\nvalue = 6.215", fillcolor="#f1b991"] ;
291 -> 292 ;
293 [label="squared_error = 0.0\nsamples = 1\nvalue = 6.282", fillcolor="#f0b68d"] ;
291 -> 293 ;
294 [label="squared_error = 0.0\nsamples = 1\nvalue = 6.376", fillcolor="#efb388"] ;
290 -> 294 ;
295 [label="squared_error = -0.0\nsamples = 1\nvalue = 6.856", fillcolor="#eca26d"] ;
289 -> 295 ;
296 [label="CHmRun <= 256.5\nsquared_error = 0.113\nsamples = 21\nvalue = 7.119", fillcolor="#ea995f"] ;
274 -> 296 ;
297 [label="Runs <= 94.5\nsquared_error = 0.077\nsamples = 17\nvalue = 7.017", fillcolor="#eb9d65"] ;
296 -> 297 ;
298 [label="Hits <= 129.5\nsquared_error = 0.048\nsamples = 13\nvalue = 6.916", fillcolor="#eba06a"] ;
297 -> 298 ;
299 [label="CRBI <= 754.0\nsquared_error = 0.008\nsamples = 4\nvalue = 7.159", fillcolor="#ea985d"] ;
298 -> 299 ;
300 [label="CRuns <= 556.0\nsquared_error = 0.001\nsamples = 3\nvalue = 7.107", fillcolor="#ea9a60"] ;
299 -> 300 ;
301 [label="Walks <= 69.5\nsquared_error = 0.0\nsamples = 2\nvalue = 7.091", fillcolor="#ea9a60"] ;
300 -> 301 ;
302 [label="squared_error = 0.0\nsamples = 1\nvalue = 7.076", fillcolor="#ea9b61"] ;
301 -> 302 ;
303 [label="squared_error = 0.0\nsamples = 1\nvalue = 7.107", fillcolor="#ea9a60"] ;
301 -> 303 ;
304 [label="squared_error = 0.0\nsamples = 1\nvalue = 7.139", fillcolor="#ea985e"] ;
300 -> 304 ;
305 [label="squared_error = -0.0\nsamples = 1\nvalue = 7.313", fillcolor="#e99254"] ;
299 -> 305 ;
306 [label="PutOuts <= 1142.5\nsquared_error = 0.028\nsamples = 9\nvalue = 6.808", fillcolor="#eca470"] ;
298 -> 306 ;
307 [label="AtBat <= 633.0\nsquared_error = 0.012\nsamples = 8\nvalue = 6.762", fillcolor="#eda673"] ;
306 -> 307 ;
308 [label="CWalks <= 257.5\nsquared_error = 0.008\nsamples = 7\nvalue = 6.735", fillcolor="#eda774"] ;
307 -> 308 ;
309 [label="Walks <= 46.5\nsquared_error = 0.003\nsamples = 2\nvalue = 6.859", fillcolor="#eca26d"] ;
308 -> 309 ;
310 [label="squared_error = 0.0\nsamples = 1\nvalue = 6.916", fillcolor="#eba06a"] ;
309 -> 310 ;
311 [label="squared_error = 0.0\nsamples = 1\nvalue = 6.802", fillcolor="#eca470"] ;
309 -> 311 ;
312 [label="Runs <= 72.0\nsquared_error = 0.001\nsamples = 5\nvalue = 6.685", fillcolor="#eda877"] ;
308 -> 312 ;
313 [label="CHmRun <= 149.0\nsquared_error = 0.0\nsamples = 2\nvalue = 6.724", fillcolor="#eda775"] ;
312 -> 313 ;
314 [label="squared_error = 0.0\nsamples = 1\nvalue = 6.703", fillcolor="#eda876"] ;
313 -> 314 ;
315 [label="squared_error = 0.0\nsamples = 1\nvalue = 6.745", fillcolor="#eda674"] ;
313 -> 315 ;
316 [label="HmRun <= 20.5\nsquared_error = 0.0\nsamples = 3\nvalue = 6.659", fillcolor="#eda978"] ;
312 -> 316 ;
317 [label="CWalks <= 567.0\nsquared_error = 0.0\nsamples = 2\nvalue = 6.654", fillcolor="#eda979"] ;
316 -> 317 ;
318 [label="squared_error = 0.0\nsamples = 1\nvalue = 6.655", fillcolor="#eda978"] ;
317 -> 318 ;
319 [label="squared_error = -0.0\nsamples = 1\nvalue = 6.653", fillcolor="#eda979"] ;
317 -> 319 ;
320 [label="squared_error = -0.0\nsamples = 1\nvalue = 6.669", fillcolor="#eda978"] ;
316 -> 320 ;
321 [label="squared_error = -0.0\nsamples = 1\nvalue = 6.949", fillcolor="#eb9f68"] ;
307 -> 321 ;
322 [label="squared_error = 0.0\nsamples = 1\nvalue = 7.178", fillcolor="#ea975c"] ;
306 -> 322 ;
323 [label="Errors <= 9.5\nsquared_error = 0.029\nsamples = 4\nvalue = 7.347", fillcolor="#e89152"] ;
297 -> 323 ;
324 [label="CHmRun <= 98.0\nsquared_error = 0.007\nsamples = 2\nvalue = 7.504", fillcolor="#e78c4a"] ;
323 -> 324 ;
325 [label="squared_error = 0.0\nsamples = 1\nvalue = 7.588", fillcolor="#e78945"] ;
324 -> 325 ;
326 [label="squared_error = 0.0\nsamples = 1\nvalue = 7.421", fillcolor="#e88f4e"] ;
324 -> 326 ;
327 [label="Hits <= 181.5\nsquared_error = 0.0\nsamples = 2\nvalue = 7.189", fillcolor="#e9975b"] ;
323 -> 327 ;
328 [label="squared_error = 0.0\nsamples = 1\nvalue = 7.208", fillcolor="#e9965a"] ;
327 -> 328 ;
329 [label="squared_error = -0.0\nsamples = 1\nvalue = 7.17", fillcolor="#ea975c"] ;
327 -> 329 ;
330 [label="CAtBat <= 7411.0\nsquared_error = 0.035\nsamples = 4\nvalue = 7.55", fillcolor="#e78a47"] ;
296 -> 330 ;
331 [label="PutOuts <= 957.0\nsquared_error = 0.014\nsamples = 3\nvalue = 7.64", fillcolor="#e68742"] ;
330 -> 331 ;
332 [label="HmRun <= 26.5\nsquared_error = 0.0\nsamples = 2\nvalue = 7.556", fillcolor="#e78a47"] ;
331 -> 332 ;
333 [label="squared_error = 0.0\nsamples = 1\nvalue = 7.563", fillcolor="#e78a46"] ;
332 -> 333 ;
334 [label="squared_error = 0.0\nsamples = 1\nvalue = 7.55", fillcolor="#e78a47"] ;
332 -> 334 ;
335 [label="squared_error = -0.0\nsamples = 1\nvalue = 7.808", fillcolor="#e58139"] ;
331 -> 335 ;
336 [label="squared_error = -0.0\nsamples = 1\nvalue = 7.279", fillcolor="#e99456"] ;
330 -> 336 ;
}