digraph Tree {
node [shape=box, style="filled, rounded", color="black", fontname="helvetica"] ;
edge [fontname="helvetica"] ;
0 [label="glucosa <= 123.5\ngini = 0.5\nsamples = 576\nvalue = [288.0, 288.0]\nclass = Diabetes", fillcolor="#ffffff"] ;
1 [label="edad <= 30.5\ngini = 0.417\nsamples = 337\nvalue = [211.2, 88.836]\nclass = No diabetes", fillcolor="#f0b68c"] ;
0 -> 1 [labeldistance=2.5, labelangle=45, headlabel="True"] ;
2 [label="glucosa <= 111.5\ngini = 0.266\nsamples = 208\nvalue = [145.152, 27.224]\nclass = No diabetes", fillcolor="#ea995e"] ;
1 -> 2 ;
3 [label="grosor_piel <= 30.5\ngini = 0.166\nsamples = 157\nvalue = [114.432, 11.463]\nclass = No diabetes", fillcolor="#e88e4d"] ;
2 -> 3 ;
4 [label="gini = 0.058\nsamples = 123\nvalue = [92.928, 2.866]\nclass = No diabetes", fillcolor="#e6853f"] ;
3 -> 4 ;
5 [label="gini = 0.408\nsamples = 34\nvalue = [21.504, 8.597]\nclass = No diabetes", fillcolor="#efb388"] ;
3 -> 5 ;
6 [label="insulina <= 25.0\ngini = 0.448\nsamples = 51\nvalue = [30.72, 15.761]\nclass = No diabetes", fillcolor="#f2c29f"] ;
2 -> 6 ;
7 [label="gini = 0.5\nsamples = 25\nvalue = [12.288, 12.896]\nclass = Diabetes", fillcolor="#f6fafe"] ;
6 -> 7 ;
8 [label="gini = 0.233\nsamples = 26\nvalue = [18.432, 2.866]\nclass = No diabetes", fillcolor="#e99558"] ;
6 -> 8 ;
9 [label="imc <= 26.95\ngini = 0.499\nsamples = 129\nvalue = [66.048, 61.612]\nclass = No diabetes", fillcolor="#fdf7f2"] ;
1 -> 9 ;
10 [label="gini = 0.0\nsamples = 28\nvalue = [21.504, 0.0]\nclass = No diabetes", fillcolor="#e58139"] ;
9 -> 10 ;
11 [label="glucosa <= 94.5\ngini = 0.487\nsamples = 101\nvalue = [44.544, 61.612]\nclass = Diabetes", fillcolor="#c8e4f8"] ;
9 -> 11 ;
12 [label="gini = 0.378\nsamples = 26\nvalue = [16.896, 5.731]\nclass = No diabetes", fillcolor="#eeac7c"] ;
11 -> 12 ;
13 [label="gini = 0.443\nsamples = 75\nvalue = [27.648, 55.881]\nclass = Diabetes", fillcolor="#9bcdf2"] ;
11 -> 13 ;
14 [label="imc <= 29.95\ngini = 0.402\nsamples = 239\nvalue = [76.8, 199.164]\nclass = Diabetes", fillcolor="#85c3ef"] ;
0 -> 14 [labeldistance=2.5, labelangle=-45, headlabel="False"] ;
15 [label="edad <= 26.5\ngini = 0.499\nsamples = 76\nvalue = [36.864, 40.119]\nclass = Diabetes", fillcolor="#eff7fd"] ;
14 -> 15 ;
16 [label="gini = 0.163\nsamples = 20\nvalue = [14.592, 1.433]\nclass = No diabetes", fillcolor="#e88d4c"] ;
15 -> 16 ;
17 [label="edad <= 56.0\ngini = 0.464\nsamples = 56\nvalue = [22.272, 38.687]\nclass = Diabetes", fillcolor="#abd5f4"] ;
15 -> 17 ;
18 [label="gini = 0.384\nsamples = 43\nvalue = [13.056, 37.254]\nclass = Diabetes", fillcolor="#7ebfee"] ;
17 -> 18 ;
19 [label="gini = 0.233\nsamples = 13\nvalue = [9.216, 1.433]\nclass = No diabetes", fillcolor="#e99558"] ;
17 -> 19 ;
20 [label="funcion_pedigri <= 0.401\ngini = 0.321\nsamples = 163\nvalue = [39.936, 159.045]\nclass = Diabetes", fillcolor="#6bb6ec"] ;
14 -> 20 ;
21 [label="glucosa <= 154.5\ngini = 0.435\nsamples = 75\nvalue = [26.88, 57.313]\nclass = Diabetes", fillcolor="#96cbf1"] ;
20 -> 21 ;
22 [label="gini = 0.49\nsamples = 48\nvalue = [21.504, 28.657]\nclass = Diabetes", fillcolor="#cee7f9"] ;
21 -> 22 ;
23 [label="gini = 0.266\nsamples = 27\nvalue = [5.376, 28.657]\nclass = Diabetes", fillcolor="#5eafea"] ;
21 -> 23 ;
24 [label="glucosa <= 144.5\ngini = 0.202\nsamples = 88\nvalue = [13.056, 101.731]\nclass = Diabetes", fillcolor="#52aae8"] ;
20 -> 24 ;
25 [label="gini = 0.333\nsamples = 36\nvalue = [9.216, 34.388]\nclass = Diabetes", fillcolor="#6eb7ec"] ;
24 -> 25 ;
26 [label="gini = 0.102\nsamples = 52\nvalue = [3.84, 67.343]\nclass = Diabetes", fillcolor="#44a3e6"] ;
24 -> 26 ;
}